digraph Tree {
node [shape=box, style="filled", color="black"] ;
0 [label="LSTAT <= 9.725\nmse = 81.081\nsamples = 354\nvalue = 22.488", fillcolor="#e581395a"] ;
1 [label="RM <= 7.435\nmse = 78.714\nsamples = 144\nvalue = 29.715", fillcolor="#e581398f"] ;
0 -> 1 [labeldistance=2.5, labelangle=45, headlabel="True"] ;
2 [label="RM <= 6.797\nmse = 42.639\nsamples = 125\nvalue = 27.394", fillcolor="#e581397e"] ;
1 -> 2 ;
3 [label="INDUS <= 13.36\nmse = 32.819\nsamples = 88\nvalue = 25.075", fillcolor="#e581396d"] ;
2 -> 3 ;
4 [label="RM <= 6.428\nmse = 11.888\nsamples = 76\nvalue = 24.034", fillcolor="#e5813966"] ;
3 -> 4 ;
5 [label="RM <= 6.053\nmse = 6.159\nsamples = 42\nvalue = 22.088", fillcolor="#e5813957"] ;
4 -> 5 ;
6 [label="mse = 7.38\nsamples = 14\nvalue = 19.986", fillcolor="#e5813948"] ;
5 -> 6 ;
7 [label="LSTAT <= 6.735\nmse = 2.234\nsamples = 28\nvalue = 23.139", fillcolor="#e581395f"] ;
5 -> 7 ;
8 [label="mse = 1.386\nsamples = 13\nvalue = 23.777", fillcolor="#e5813964"] ;
7 -> 8 ;
9 [label="mse = 2.31\nsamples = 15\nvalue = 22.587", fillcolor="#e581395b"] ;
7 -> 9 ;
10 [label="LSTAT <= 5.79\nmse = 8.507\nsamples = 34\nvalue = 26.438", fillcolor="#e5813977"] ;
4 -> 10 ;
11 [label="mse = 8.903\nsamples = 14\nvalue = 28.2", fillcolor="#e5813984"] ;
10 -> 11 ;
12 [label="mse = 4.536\nsamples = 20\nvalue = 25.205", fillcolor="#e581396e"] ;
10 -> 12 ;
13 [label="mse = 115.071\nsamples = 12\nvalue = 31.667", fillcolor="#e581399e"] ;
3 -> 13 ;
14 [label="LSTAT <= 5.415\nmse = 22.77\nsamples = 37\nvalue = 32.911", fillcolor="#e58139a7"] ;
2 -> 14 ;
15 [label="mse = 20.021\nsamples = 22\nvalue = 34.768", fillcolor="#e58139b4"] ;
14 -> 15 ;
16 [label="mse = 14.321\nsamples = 15\nvalue = 30.187", fillcolor="#e5813993"] ;
14 -> 16 ;
17 [label="mse = 47.634\nsamples = 19\nvalue = 44.979", fillcolor="#e58139ff"] ;
1 -> 17 ;
18 [label="LSTAT <= 16.21\nmse = 22.34\nsamples = 210\nvalue = 17.533", fillcolor="#e5813936"] ;
0 -> 18 [labeldistance=2.5, labelangle=-45, headlabel="False"] ;
19 [label="LSTAT <= 14.795\nmse = 10.347\nsamples = 115\nvalue = 20.39", fillcolor="#e581394b"] ;
18 -> 19 ;
20 [label="PTRATIO <= 18.65\nmse = 9.161\nsamples = 99\nvalue = 20.79", fillcolor="#e581394e"] ;
19 -> 20 ;
21 [label="RM <= 6.043\nmse = 9.476\nsamples = 42\nvalue = 21.821", fillcolor="#e5813955"] ;
20 -> 21 ;
22 [label="RM <= 5.876\nmse = 5.931\nsamples = 24\nvalue = 20.683", fillcolor="#e581394d"] ;
21 -> 22 ;
23 [label="mse = 8.161\nsamples = 12\nvalue = 20.05", fillcolor="#e5813948"] ;
22 -> 23 ;
24 [label="mse = 2.9\nsamples = 12\nvalue = 21.317", fillcolor="#e5813952"] ;
22 -> 24 ;
25 [label="mse = 10.173\nsamples = 18\nvalue = 23.339", fillcolor="#e5813961"] ;
21 -> 25 ;
26 [label="INDUS <= 8.35\nmse = 7.567\nsamples = 57\nvalue = 20.03", fillcolor="#e5813948"] ;
20 -> 26 ;
27 [label="mse = 4.549\nsamples = 19\nvalue = 18.621", fillcolor="#e581393e"] ;
26 -> 27 ;
28 [label="LSTAT <= 13.79\nmse = 7.587\nsamples = 38\nvalue = 20.734", fillcolor="#e581394d"] ;
26 -> 28 ;
29 [label="RM <= 6.168\nmse = 9.34\nsamples = 24\nvalue = 21.329", fillcolor="#e5813952"] ;
28 -> 29 ;
30 [label="mse = 8.59\nsamples = 12\nvalue = 21.6", fillcolor="#e5813954"] ;
29 -> 30 ;
31 [label="mse = 9.942\nsamples = 12\nvalue = 21.058", fillcolor="#e5813950"] ;
29 -> 31 ;
32 [label="mse = 2.936\nsamples = 14\nvalue = 19.714", fillcolor="#e5813946"] ;
28 -> 32 ;
33 [label="mse = 10.559\nsamples = 16\nvalue = 17.912", fillcolor="#e5813939"] ;
19 -> 33 ;
34 [label="LSTAT <= 18.905\nmse = 15.019\nsamples = 95\nvalue = 14.075", fillcolor="#e581391d"] ;
18 -> 34 ;
35 [label="RM <= 6.235\nmse = 7.987\nsamples = 38\nvalue = 16.482", fillcolor="#e581392e"] ;
34 -> 35 ;
36 [label="RM <= 5.92\nmse = 6.342\nsamples = 24\nvalue = 17.529", fillcolor="#e5813936"] ;
35 -> 36 ;
37 [label="mse = 8.112\nsamples = 12\nvalue = 16.825", fillcolor="#e5813931"] ;
36 -> 37 ;
38 [label="mse = 3.581\nsamples = 12\nvalue = 18.233", fillcolor="#e581393b"] ;
36 -> 38 ;
39 [label="mse = 5.701\nsamples = 14\nvalue = 14.686", fillcolor="#e5813921"] ;
35 -> 39 ;
40 [label="TAX <= 551.5\nmse = 13.271\nsamples = 57\nvalue = 12.47", fillcolor="#e5813911"] ;
34 -> 40 ;
41 [label="mse = 8.304\nsamples = 18\nvalue = 15.294", fillcolor="#e5813926"] ;
40 -> 41 ;
42 [label="LSTAT <= 23.785\nmse = 10.183\nsamples = 39\nvalue = 11.167", fillcolor="#e5813907"] ;
40 -> 42 ;
43 [label="mse = 7.229\nsamples = 21\nvalue = 12.038", fillcolor="#e581390e"] ;
42 -> 43 ;
44 [label="mse = 11.709\nsamples = 18\nvalue = 10.15", fillcolor="#e5813900"] ;
42 -> 44 ;
}