digraph Tree {
node [shape=box, style="filled", color="black"] ;
0 [label="ABDOMEN <= 91.3\nmse = 70.379\nsamples = 176\nvalue = 18.676", fillcolor="#e581397b"] ;
1 [label="ABDOMEN <= 85.45\nmse = 31.841\nsamples = 90\nvalue = 12.782", fillcolor="#e581393d"] ;
0 -> 1 [labeldistance=2.5, labelangle=45, headlabel="True"] ;
2 [label="AGE <= 42.5\nmse = 21.668\nsamples = 50\nvalue = 10.014", fillcolor="#e5813921"] ;
1 -> 2 ;
3 [label="ABDOMEN <= 79.85\nmse = 18.586\nsamples = 32\nvalue = 8.584", fillcolor="#e5813912"] ;
2 -> 3 ;
4 [label="mse = 14.54\nsamples = 16\nvalue = 6.9", fillcolor="#e5813900"] ;
3 -> 4 ;
5 [label="mse = 16.957\nsamples = 16\nvalue = 10.269", fillcolor="#e5813923"] ;
3 -> 5 ;
6 [label="mse = 17.054\nsamples = 18\nvalue = 12.556", fillcolor="#e581393b"] ;
2 -> 6 ;
7 [label="WEIGHT <= 174.125\nmse = 23.004\nsamples = 40\nvalue = 16.242", fillcolor="#e5813962"] ;
1 -> 7 ;
8 [label="mse = 15.556\nsamples = 24\nvalue = 18.1", fillcolor="#e5813975"] ;
7 -> 8 ;
9 [label="mse = 21.239\nsamples = 16\nvalue = 13.456", fillcolor="#e5813945"] ;
7 -> 9 ;
10 [label="ABDOMEN <= 104.9\nmse = 36.311\nsamples = 86\nvalue = 24.844", fillcolor="#e58139bc"] ;
0 -> 10 [labeldistance=2.5, labelangle=-45, headlabel="False"] ;
11 [label="HEIGHT <= 68.625\nmse = 19.797\nsamples = 65\nvalue = 22.762", fillcolor="#e58139a6"] ;
10 -> 11 ;
12 [label="mse = 21.065\nsamples = 16\nvalue = 25.363", fillcolor="#e58139c1"] ;
11 -> 12 ;
13 [label="ABDOMEN <= 99.15\nmse = 16.453\nsamples = 49\nvalue = 21.912", fillcolor="#e581399d"] ;
11 -> 13 ;
14 [label="THIGH <= 60.2\nmse = 12.844\nsamples = 32\nvalue = 21.022", fillcolor="#e5813994"] ;
13 -> 14 ;
15 [label="mse = 9.742\nsamples = 16\nvalue = 22.038", fillcolor="#e581399e"] ;
14 -> 15 ;
16 [label="mse = 13.882\nsamples = 16\nvalue = 20.006", fillcolor="#e5813989"] ;
14 -> 16 ;
17 [label="mse = 18.946\nsamples = 17\nvalue = 23.588", fillcolor="#e58139ae"] ;
13 -> 17 ;
18 [label="mse = 32.445\nsamples = 21\nvalue = 31.29", fillcolor="#e58139ff"] ;
10 -> 18 ;
}